<?xml version="1.0"?>
<opencv_storage>
<cascade>
  <stageType>BOOST</stageType>
  <featureType>HAAR</featureType>
  <height>24</height>
  <width>24</width>
  <stageParams>
    <boostType>GAB</boostType>
    <minHitRate>9.9500000476837158e-01</minHitRate>
    <maxFalseAlarm>5.0000000000000000e-01</maxFalseAlarm>
    <weightTrimRate>9.4999998807907104e-01</weightTrimRate>
    <maxDepth>1</maxDepth>
    <maxWeakCount>100</maxWeakCount></stageParams>
  <featureParams>
    <maxCatCount>0</maxCatCount>
    <featSize>1</featSize>
    <mode>BASIC</mode></featureParams>
  <stageNum>20</stageNum>
  <stages>
    <!-- stage 0 -->
    <_>
      <maxWeakCount>4</maxWeakCount>
      <stageThreshold>-1.7123496532440186e+00</stageThreshold>
      <weakClassifiers>
        <_>
          <internalNodes>
            0 -1 87 7.5262628495693207e-02</internalNodes>
          <leafValues>
            -9.0185385942459106e-01 6.7263424396514893e-01</leafValues></_>
        <_>
          <internalNodes>
            0 -1 2 -2.1028373390436172e-02</internalNodes>
          <leafValues>
            6.1031007766723633e-01 -7.3843079805374146e-01</leafValues></_>
        <_>
          <internalNodes>
            0 -1 55 -6.3403092324733734e-02</internalNodes>
          <leafValues>
            4.8795294761657715e-01 -6.7289620637893677e-01</leafValues></_>
        <_>
          <internalNodes>
            0 -1 159 -2.2888544481247663e-04</internalNodes>
          <leafValues>
            6.0083121061325073e-01 -4.6208578348159790e-01</leafValues></_></weakClassifiers></_>
    <!-- stage 1 -->
    <_>
      <maxWeakCount>7</maxWeakCount>
      <stageThreshold>-1.7608628273010254e+00</stageThreshold>
      <weakClassifiers>
        <_>
          <internalNodes>
            0 -1 19 -3.9664160460233688e-02</internalNodes>
          <leafValues>
            6.6766464710235596e-01 -7.2453927993774414e-01</leafValues></_>
        <_>
          <internalNodes>
            0 -1 119 2.0647991448640823e-02</internalNodes>
          <leafValues>
            -6.5470987558364868e-01 6.6091740131378174e-01</leafValues></_>
        <_>
          <internalNodes>
            0 -1 84 9.4659350812435150e-02</internalNodes>
          <leafValues>
            -4.9637553095817566e-01 6.6784155368804932e-01</leafValues></_>
        <_>
          <internalNodes>
            0 -1 17 -5.3438441827893257e-03</internalNodes>
          <leafValues>
            5.5457097291946411e-01 -4.3565410375595093e-01</leafValues></_>
        <_>
          <internalNodes>
            0 -1 131 -1.1795883765444160e-03</internalNodes>
          <leafValues>
            4.0976887941360474e-01 -5.9771138429641724e-01</leafValues></_>
        <_>
          <internalNodes>
            0 -1 39 8.5295503959059715e-04</internalNodes>
          <leafValues>
            -3.7466523051261902e-01 6.1025071144104004e-01</leafValues></_>
        <_>
          <internalNodes>
            0 -1 34 1.7653726972639561e-03</internalNodes>
          <leafValues>
            -4.5524036884307861e-01 5.1531231403350830e-01</leafValues></_></weakClassifiers></_>
    <!-- stage 2 -->
    <_>
      <maxWeakCount>6</maxWeakCount>
      <stageThreshold>-1.5563809871673584e+00</stageThreshold>
      <weakClassifiers>
        <_>
          <internalNodes>
            0 -1 167 1.9924407824873924e-03</internalNodes>
          <leafValues>
            -8.6075949668884277e-01 4.1694170236587524e-01</leafValues></_>
        <_>
          <internalNodes>
            0 -1 14 -1.0893061012029648e-01</internalNodes>
          <leafValues>
            5.5787897109985352e-01 -6.3944661617279053e-01</leafValues></_>
        <_>
          <internalNodes>
            0 -1 93 -2.9376367107033730e-02</internalNodes>
          <leafValues>
            4.3282613158226013e-01 -7.8980743885040283e-01</leafValues></_>
        <_>
          <internalNodes>
            0 -1 88 1.9606839865446091e-02</internalNodes>
          <leafValues>
            -5.2424407005310059e-01 6.2989920377731323e-01</leafValues></_>
        <_>
          <internalNodes>
            0 -1 112 1.7452921718358994e-02</internalNodes>
          <leafValues>
            -2.9374346137046814e-01 6.9805926084518433e-01</leafValues></_>
        <_>
          <internalNodes>
            0 -1 52 -2.9553942382335663e-02</internalNodes>
          <leafValues>
            5.5981737375259399e-01 -3.6924099922180176e-01</leafValues></_></weakClassifiers></_>
    <!-- stage 3 -->
    <_>
      <maxWeakCount>9</maxWeakCount>
      <stageThreshold>-1.5506384372711182e+00</stageThreshold>
      <weakClassifiers>
        <_>
          <internalNodes>
            0 -1 91 -1.0217204689979553e-02</internalNodes>
          <leafValues>
            4.4809460639953613e-01 -6.8443495035171509e-01</leafValues></_>
        <_>
          <internalNodes>
            0 -1 18 -6.2219500541687012e-02</internalNodes>
          <leafValues>
            6.8906927108764648e-01 -4.6594300866127014e-01</leafValues></_>
        <_>
          <internalNodes>
            0 -1 145 4.4696955010294914e-03</internalNodes>
          <leafValues>
            -6.4566898345947266e-01 4.4784268736839294e-01</leafValues></_>
        <_>
          <internalNodes>
            0 -1 73 -1.0662088543176651e-01</internalNodes>
          <leafValues>
            3.8345432281494141e-01 -6.5458303689956665e-01</leafValues></_>
        <_>
          <internalNodes>
            0 -1 68 -5.2573154680430889e-03</internalNodes>
          <leafValues>
            4.0952587127685547e-01 -4.3109139800071716e-01</leafValues></_>
        <_>
          <internalNodes>
            0 -1 72 3.1950969249010086e-02</internalNodes>
          <leafValues>
            -2.8096979856491089e-01 6.8137484788894653e-01</leafValues></_>
        <_>
          <internalNodes>
            0 -1 3 -2.7449175831861794e-04</internalNodes>
          <leafValues>
            -7.3682188987731934e-01 3.1380707025527954e-01</leafValues></_>
        <_>
          <internalNodes>
            0 -1 44 4.0070202201604843e-02</internalNodes>
          <leafValues>
            1.4960236847400665e-01 -8.8528662919998169e-01</leafValues></_>
        <_>
          <internalNodes>
            0 -1 89 7.5352072599343956e-05</internalNodes>
          <leafValues>
            -5.1862663030624390e-01 3.0802601575851440e-01</leafValues></_></weakClassifiers></_>
    <!-- stage 4 -->
    <_>
      <maxWeakCount>10</maxWeakCount>
      <stageThreshold>-1.7358787059783936e+00</stageThreshold>
      <weakClassifiers>
        <_>
          <internalNodes>
            0 -1 15 -7.4920982122421265e-02</internalNodes>
          <leafValues>
            4.2782151699066162e-01 -6.6915690898895264e-01</leafValues></_>
        <_>
          <internalNodes>
            0 -1 125 9.2244416475296021e-02</internalNodes>
          <leafValues>
            -5.3859800100326538e-01 6.2857645750045776e-01</leafValues></_>
        <_>
          <internalNodes>
            0 -1 20 -2.4526068009436131e-03</internalNodes>
          <leafValues>
            3.8512015342712402e-01 -7.4239206314086914e-01</leafValues></_>
        <_>
          <internalNodes>
            0 -1 161 -7.9265225213021040e-04</internalNodes>
          <leafValues>
            4.6483677625656128e-01 -4.9288603663444519e-01</leafValues></_>
        <_>
          <internalNodes>
            0 -1 126 -7.3168091475963593e-02</internalNodes>
          <leafValues>
            8.2743519544601440e-01 -2.1061304211616516e-01</leafValues></_>
        <_>
          <internalNodes>
            0 -1 149 -8.1158528337255120e-04</internalNodes>
          <leafValues>
            5.5201649665832520e-01 -3.6155879497528076e-01</leafValues></_>
        <_>
          <internalNodes>
            0 -1 182 -2.2600153461098671e-03</internalNodes>
          <leafValues>
            -8.2612556219100952e-01 2.1371586620807648e-01</leafValues></_>
        <_>
          <internalNodes>
            0 -1 6 -5.8075085282325745e-02</internalNodes>
          <leafValues>
            -7.6471912860870361e-01 1.8272033333778381e-01</leafValues></_>
        <_>
          <internalNodes>
            0 -1 141 -1.6852159751579165e-04</internalNodes>
          <leafValues>
            4.1462412476539612e-01 -4.2923742532730103e-01</leafValues></_>
        <_>
          <internalNodes>
            0 -1 177 -2.5029765674844384e-04</internalNodes>
          <leafValues>
            -5.9427505731582642e-01 3.1872671842575073e-01</leafValues></_></weakClassifiers></_>
    <!-- stage 5 -->
    <_>
      <maxWeakCount>9</maxWeakCount>
      <stageThreshold>-1.5998708009719849e+00</stageThreshold>
      <weakClassifiers>
        <_>
          <internalNodes>
            0 -1 123 3.7308726459741592e-03</internalNodes>
          <leafValues>
            -7.0595097541809082e-01 3.6104512214660645e-01</leafValues></_>
        <_>
          <internalNodes>
            0 -1 59 -1.9260849058628082e-01</internalNodes>
          <leafValues>
            3.5922932624816895e-01 -7.5018197298049927e-01</leafValues></_>
        <_>
          <internalNodes>
            0 -1 30 1.1260833591222763e-02</internalNodes>
          <leafValues>
            -4.9626699090003967e-01 5.2591758966445923e-01</leafValues></_>
        <_>
          <internalNodes>
            0 -1 35 -2.0611790940165520e-02</internalNodes>
          <leafValues>
            4.4063067436218262e-01 -5.0085043907165527e-01</leafValues></_>
        <_>
          <internalNodes>
            0 -1 132 1.7071407288312912e-02</internalNodes>
          <leafValues>
            -4.7052556276321411e-01 4.0309497714042664e-01</leafValues></_>
        <_>
          <internalNodes>
            0 -1 64 3.8513077015522867e-05</internalNodes>
          <leafValues>
            -4.9086979031562805e-01 3.5433232784271240e-01</leafValues></_>
        <_>
          <internalNodes>
            0 -1 169 -4.5319284254219383e-05</internalNodes>
          <leafValues>
            -7.9041028022766113e-01 2.1461738646030426e-01</leafValues></_>
        <_>
          <internalNodes>
            0 -1 48 -1.4606707729399204e-02</internalNodes>
          <leafValues>
            5.5784147977828979e-01 -3.0721813440322876e-01</leafValues></_>
        <_>
          <internalNodes>
            0 -1 103 -3.6350832669995725e-04</internalNodes>
          <leafValues>
            -9.0896707773208618e-01 2.3224207758903503e-01</leafValues></_></weakClassifiers></_>
    <!-- stage 6 -->
    <_>
      <maxWeakCount>10</maxWeakCount>
      <stageThreshold>-1.6764189004898071e+00</stageThreshold>
      <weakClassifiers>
        <_>
          <internalNodes>
            0 -1 60 1.2343353591859341e-02</internalNodes>
          <leafValues>
            -5.2521741390228271e-01 5.5191254615783691e-01</leafValues></_>
        <_>
          <internalNodes>
            0 -1 56 2.1256947517395020e-01</internalNodes>
          <leafValues>
            -6.3521867990493774e-01 3.7781199812889099e-01</leafValues></_>
        <_>
          <internalNodes>
            0 -1 51 -2.4465793743729591e-02</internalNodes>
          <leafValues>
            4.4447115063667297e-01 -4.8454073071479797e-01</leafValues></_>
        <_>
          <internalNodes>
            0 -1 181 -8.9517817832529545e-04</internalNodes>
          <leafValues>
            3.6998012661933899e-01 -5.8091211318969727e-01</leafValues></_>
        <_>
          <internalNodes>
            0 -1 32 4.8168963985517621e-05</internalNodes>
          <leafValues>
            2.2477932274341583e-01 -7.9914897680282593e-01</leafValues></_>
        <_>
          <internalNodes>
            0 -1 133 -1.7111624765675515e-04</internalNodes>
          <leafValues>
            4.5317089557647705e-01 -4.0930080413818359e-01</leafValues></_>
        <_>
          <internalNodes>
            0 -1 120 -7.6553085818886757e-04</internalNodes>
          <leafValues>
            3.2421651482582092e-01 -5.4860997200012207e-01</leafValues></_>
        <_>
          <internalNodes>
            0 -1 13 9.9889092147350311e-02</internalNodes>
          <leafValues>
            1.5971291065216064e-01 -9.4932633638381958e-01</leafValues></_>
        <_>
          <internalNodes>
            0 -1 166 -1.0145547566935420e-03</internalNodes>
          <leafValues>
            -8.3557897806167603e-01 1.1717016994953156e-01</leafValues></_>
        <_>
          <internalNodes>
            0 -1 40 -3.2114869100041687e-04</internalNodes>
          <leafValues>
            -8.3017438650131226e-01 1.4324660599231720e-01</leafValues></_></weakClassifiers></_>
    <!-- stage 7 -->
    <_>
      <maxWeakCount>8</maxWeakCount>
      <stageThreshold>-1.3829263448715210e+00</stageThreshold>
      <weakClassifiers>
        <_>
          <internalNodes>
            0 -1 16 -4.1334234178066254e-02</internalNodes>
          <leafValues>
            3.0832356214523315e-01 -6.6666668653488159e-01</leafValues></_>
        <_>
          <internalNodes>
            0 -1 78 6.2659367918968201e-02</internalNodes>
          <leafValues>
            -5.5989831686019897e-01 4.8448312282562256e-01</leafValues></_>
        <_>
          <internalNodes>
            0 -1 159 -2.6290543610230088e-04</internalNodes>
          <leafValues>
            4.3825012445449829e-01 -5.4200953245162964e-01</leafValues></_>
        <_>
          <internalNodes>
            0 -1 74 -6.0448620468378067e-02</internalNodes>
          <leafValues>
            2.2942695021629333e-01 -8.7413495779037476e-01</leafValues></_>
        <_>
          <internalNodes>
            0 -1 175 -8.1229620263911784e-05</internalNodes>
          <leafValues>
            -7.0774817466735840e-01 2.7246603369712830e-01</leafValues></_>
        <_>
          <internalNodes>
            0 -1 138 -3.3179455203935504e-04</internalNodes>
          <leafValues>
            4.4056296348571777e-01 -4.6590709686279297e-01</leafValues></_>
        <_>
          <internalNodes>
            0 -1 58 3.2259404659271240e-02</internalNodes>
          <leafValues>
            -6.0162276029586792e-01 2.6334872841835022e-01</leafValues></_>
        <_>
          <internalNodes>
            0 -1 165 -1.1718531604856253e-03</internalNodes>
          <leafValues>
            -8.7099480628967285e-01 1.7863649129867554e-01</leafValues></_></weakClassifiers></_>
    <!-- stage 8 -->
    <_>
      <maxWeakCount>11</maxWeakCount>
      <stageThreshold>-1.7360478639602661e+00</stageThreshold>
      <weakClassifiers>
        <_>
          <internalNodes>
            0 -1 172 3.2829566043801606e-04</internalNodes>
          <leafValues>
            -8.1602376699447632e-01 2.4292683601379395e-01</leafValues></_>
        <_>
          <internalNodes>
            0 -1 25 1.4765189029276371e-02</internalNodes>
          <leafValues>
            -4.9532222747802734e-01 5.4108518362045288e-01</leafValues></_>
        <_>
          <internalNodes>
            0 -1 57 -1.3282159343361855e-03</internalNodes>
          <leafValues>
            4.0912619233131409e-01 -5.5653101205825806e-01</leafValues></_>
        <_>
          <internalNodes>
            0 -1 71 3.3011384308338165e-02</internalNodes>
          <leafValues>
            -4.5437383651733398e-01 5.0693118572235107e-01</leafValues></_>
        <_>
          <internalNodes>
            0 -1 106 -1.7629701178520918e-03</internalNodes>
          <leafValues>
            2.4072510004043579e-01 -7.0603066682815552e-01</leafValues></_>
        <_>
          <internalNodes>
            0 -1 7 -3.0037690885365009e-03</internalNodes>
          <leafValues>
            -7.7985656261444092e-01 1.9556917250156403e-01</leafValues></_>
        <_>
          <internalNodes>
            0 -1 110 -3.0920179560780525e-03</internalNodes>
          <leafValues>
            2.1618194878101349e-01 -5.7239729166030884e-01</leafValues></_>
        <_>
          <internalNodes>
            0 -1 147 -8.1744380295276642e-03</internalNodes>
          <leafValues>
            5.6549769639968872e-01 -2.4536712467670441e-01</leafValues></_>
        <_>
          <internalNodes>
            0 -1 46 -6.5375566482543945e-02</internalNodes>
          <leafValues>
            6.1561977863311768e-01 -3.1102690100669861e-01</leafValues></_>
        <_>
          <internalNodes>
            0 -1 156 -4.2144432663917542e-03</internalNodes>
          <leafValues>
            -9.0995836257934570e-01 1.7012847959995270e-01</leafValues></_>
        <_>
          <internalNodes>
            0 -1 62 2.4722594389459118e-05</internalNodes>
          <leafValues>
            -4.2917609214782715e-01 3.0109074711799622e-01</leafValues></_></weakClassifiers></_>
    <!-- stage 9 -->
    <_>
      <maxWeakCount>12</maxWeakCount>
      <stageThreshold>-1.6191055774688721e+00</stageThreshold>
      <weakClassifiers>
        <_>
          <internalNodes>
            0 -1 152 -1.4738034224137664e-03</internalNodes>
          <leafValues>
            2.5149700045585632e-01 -7.9340028762817383e-01</leafValues></_>
        <_>
          <internalNodes>
            0 -1 49 -1.1812529992312193e-03</internalNodes>
          <leafValues>
            2.5625309348106384e-01 -6.2588816881179810e-01</leafValues></_>
        <_>
          <internalNodes>
            0 -1 99 -2.1743718534708023e-02</internalNodes>
          <leafValues>
            3.5680526494979858e-01 -4.8283100128173828e-01</leafValues></_>
        <_>
          <internalNodes>
            0 -1 153 1.1087574530392885e-03</internalNodes>
          <leafValues>
            -5.3276824951171875e-01 3.3855867385864258e-01</leafValues></_>
        <_>
          <internalNodes>
            0 -1 61 -2.2982310503721237e-02</internalNodes>
          <leafValues>
            3.7052664160728455e-01 -5.0046849250793457e-01</leafValues></_>
        <_>
          <internalNodes>
            0 -1 25 1.8251907080411911e-02</internalNodes>
          <leafValues>
            -3.5435730218887329e-01 4.6738582849502563e-01</leafValues></_>
        <_>
          <internalNodes>
            0 -1 102 -7.7983632218092680e-04</internalNodes>
          <leafValues>
            -9.2395424842834473e-01 1.6173024475574493e-01</leafValues></_>
        <_>
          <internalNodes>
            0 -1 140 -3.7911864637862891e-05</internalNodes>
          <leafValues>
            3.1487923860549927e-01 -4.4630879163742065e-01</leafValues></_>
        <_>
          <internalNodes>
            0 -1 29 -1.3986554741859436e-01</internalNodes>
          <leafValues>
            6.6148942708969116e-01 -1.8804158270359039e-01</leafValues></_>
        <_>
          <internalNodes>
            0 -1 144 -5.8784062275663018e-05</internalNodes>
          <leafValues>
            -7.3511481285095215e-01 1.7497642338275909e-01</leafValues></_>
        <_>
          <internalNodes>
            0 -1 54 -7.0128336548805237e-02</internalNodes>
          <leafValues>
            6.9226133823394775e-01 -2.0002000033855438e-01</leafValues></_>
        <_>
          <internalNodes>
            0 -1 111 -1.7082545673474669e-04</internalNodes>
          <leafValues>
            4.4649410247802734e-01 -3.6773318052291870e-01</leafValues></_></weakClassifiers></_>
    <!-- stage 10 -->
    <_>
      <maxWeakCount>9</maxWeakCount>
      <stageThreshold>-1.5793274641036987e+00</stageThreshold>
      <weakClassifiers>
        <_>
          <internalNodes>
            0 -1 180 6.4412620849907398e-04</internalNodes>
          <leafValues>
            -7.9369628429412842e-01 2.5274726748466492e-01</leafValues></_>
        <_>
          <internalNodes>
            0 -1 12 -9.7469232976436615e-02</internalNodes>
          <leafValues>
            3.3701968193054199e-01 -5.0452154874801636e-01</leafValues></_>
        <_>
          <internalNodes>
            0 -1 117 6.0938954353332520e-02</internalNodes>
          <leafValues>
            -5.1339602470397949e-01 3.9432832598686218e-01</leafValues></_>
        <_>
          <internalNodes>
            0 -1 160 -1.0033147409558296e-03</internalNodes>
          <leafValues>
            4.7152128815650940e-01 -3.9182817935943604e-01</leafValues></_>
        <_>
          <internalNodes>
            0 -1 127 -6.9075070321559906e-02</internalNodes>
          <leafValues>
            6.1302584409713745e-01 -3.1059363484382629e-01</leafValues></_>
        <_>
          <internalNodes>
            0 -1 28 4.9116365611553192e-02</internalNodes>
          <leafValues>
            -3.0312418937683105e-01 6.5346783399581909e-01</leafValues></_>
        <_>
          <internalNodes>
            0 -1 154 2.9051189776510000e-03</internalNodes>
          <leafValues>
            2.8336563706398010e-01 -7.8962755203247070e-01</leafValues></_>
        <_>
          <internalNodes>
            0 -1 148 -3.8695943658240139e-05</internalNodes>
          <leafValues>
            3.5579422116279602e-01 -4.6564844250679016e-01</leafValues></_>
        <_>
          <internalNodes>
            0 -1 80 -5.7844344526529312e-02</internalNodes>
          <leafValues>
            5.3894048929214478e-01 -3.8946864008903503e-01</leafValues></_></weakClassifiers></_>
    <!-- stage 11 -->
    <_>
      <maxWeakCount>11</maxWeakCount>
      <stageThreshold>-1.6032167673110962e+00</stageThreshold>
      <weakClassifiers>
        <_>
          <internalNodes>
            0 -1 168 2.3954773787409067e-03</internalNodes>
          <leafValues>
            -8.1601363420486450e-01 1.6007193922996521e-01</leafValues></_>
        <_>
          <internalNodes>
            0 -1 42 -7.4619919061660767e-02</internalNodes>
          <leafValues>
            1.6979774832725525e-01 -8.3387058973312378e-01</leafValues></_>
        <_>
          <internalNodes>
            0 -1 82 3.2645910978317261e-02</internalNodes>
          <leafValues>
            -4.7921490669250488e-01 3.7655782699584961e-01</leafValues></_>
        <_>
          <internalNodes>
            0 -1 75 1.5477124601602554e-02</internalNodes>
          <leafValues>
            -9.1425102949142456e-01 1.9339130818843842e-01</leafValues></_>
        <_>
          <internalNodes>
            0 -1 155 -2.1368454326875508e-04</internalNodes>
          <leafValues>
            3.7291359901428223e-01 -4.4621756672859192e-01</leafValues></_>
        <_>
          <internalNodes>
            0 -1 134 -2.7033165679313242e-04</internalNodes>
          <leafValues>
            4.9156108498573303e-01 -3.6027646064758301e-01</leafValues></_>
        <_>
          <internalNodes>
            0 -1 157 -1.2195492163300514e-03</internalNodes>
          <leafValues>
            -9.8698884248733521e-01 1.5285049378871918e-01</leafValues></_>
        <_>
          <internalNodes>
            0 -1 79 -1.8802103586494923e-03</internalNodes>
          <leafValues>
            4.7753134369850159e-01 -3.6520978808403015e-01</leafValues></_>
        <_>
          <internalNodes>
            0 -1 184 4.9821494030766189e-05</internalNodes>
          <leafValues>
            2.4009519815444946e-01 -9.0614676475524902e-01</leafValues></_>
        <_>
          <internalNodes>
            0 -1 174 -1.3659088290296495e-04</internalNodes>
          <leafValues>
            -7.0703649520874023e-01 1.9584459066390991e-01</leafValues></_>
        <_>
          <internalNodes>
            0 -1 105 2.7602221816778183e-03</internalNodes>
          <leafValues>
            9.6273474395275116e-02 -9.1792553663253784e-01</leafValues></_></weakClassifiers></_>
    <!-- stage 12 -->
    <_>
      <maxWeakCount>13</maxWeakCount>
      <stageThreshold>-1.5498589277267456e+00</stageThreshold>
      <weakClassifiers>
        <_>
          <internalNodes>
            0 -1 81 3.8965847343206406e-03</internalNodes>
          <leafValues>
            -6.1463940143585205e-01 3.5064935684204102e-01</leafValues></_>
        <_>
          <internalNodes>
            0 -1 122 1.1220064479857683e-03</internalNodes>
          <leafValues>
            -5.2820533514022827e-01 4.0988218784332275e-01</leafValues></_>
        <_>
          <internalNodes>
            0 -1 23 3.6934211850166321e-02</internalNodes>
          <leafValues>
            -2.9744720458984375e-01 6.3107848167419434e-01</leafValues></_>
        <_>
          <internalNodes>
            0 -1 4 -1.2382779270410538e-02</internalNodes>
          <leafValues>
            2.7893629670143127e-01 -6.0905891656875610e-01</leafValues></_>
        <_>
          <internalNodes>
            0 -1 10 -6.8949326872825623e-02</internalNodes>
          <leafValues>
            4.7936430573463440e-01 -3.6467573046684265e-01</leafValues></_>
        <_>
          <internalNodes>
            0 -1 86 -4.3163333088159561e-02</internalNodes>
          <leafValues>
            2.4914696812629700e-01 -7.3944693803787231e-01</leafValues></_>
        <_>
          <internalNodes>
            0 -1 38 -1.7313680052757263e-01</internalNodes>
          <leafValues>
            7.7816694974899292e-01 -2.2843585908412933e-01</leafValues></_>
        <_>
          <internalNodes>
            0 -1 33 -1.7867371207103133e-04</internalNodes>
          <leafValues>
            -6.4389252662658691e-01 2.5979623198509216e-01</leafValues></_>
        <_>
          <internalNodes>
            0 -1 116 3.5150572657585144e-02</internalNodes>
          <leafValues>
            -2.6949134469032288e-01 5.5344414710998535e-01</leafValues></_>
        <_>
          <internalNodes>
            0 -1 100 -1.8384136259555817e-02</internalNodes>
          <leafValues>
            5.6938195228576660e-01 -3.0256006121635437e-01</leafValues></_>
        <_>
          <internalNodes>
            0 -1 63 2.1352949261199683e-05</internalNodes>
          <leafValues>
            -4.7682899236679077e-01 2.9470315575599670e-01</leafValues></_>
        <_>
          <internalNodes>
            0 -1 26 4.0812537074089050e-02</internalNodes>
          <leafValues>
            -2.3199690878391266e-01 6.9480907917022705e-01</leafValues></_>
        <_>
          <internalNodes>
            0 -1 31 -6.6015491029247642e-05</internalNodes>
          <leafValues>
            -6.3713139295578003e-01 2.4896542727947235e-01</leafValues></_></weakClassifiers></_>
    <!-- stage 13 -->
    <_>
      <maxWeakCount>11</maxWeakCount>
      <stageThreshold>-1.6172116994857788e+00</stageThreshold>
      <weakClassifiers>
        <_>
          <internalNodes>
            0 -1 69 6.9583021104335785e-03</internalNodes>
          <leafValues>
            -6.9889843463897705e-01 3.0612245202064514e-01</leafValues></_>
        <_>
          <internalNodes>
            0 -1 162 -2.0246859639883041e-04</internalNodes>
          <leafValues>
            3.7412053346633911e-01 -5.0278776884078979e-01</leafValues></_>
        <_>
          <internalNodes>
            0 -1 104 -8.1478536128997803e-02</internalNodes>
          <leafValues>
            4.7582706809043884e-01 -3.9383909106254578e-01</leafValues></_>
        <_>
          <internalNodes>
            0 -1 22 -1.0133115202188492e-01</internalNodes>
          <leafValues>
            6.2393707036972046e-01 -2.7245184779167175e-01</leafValues></_>
        <_>
          <internalNodes>
            0 -1 121 -3.1120462343096733e-02</internalNodes>
          <leafValues>
            -8.7824821472167969e-01 2.4346986413002014e-01</leafValues></_>
        <_>
          <internalNodes>
            0 -1 143 -2.0471400057431310e-04</internalNodes>
          <leafValues>
            3.9592263102531433e-01 -3.7757661938667297e-01</leafValues></_>
        <_>
          <internalNodes>
            0 -1 124 2.8263086453080177e-02</internalNodes>
          <leafValues>
            2.0236431062221527e-01 -9.4702339172363281e-01</leafValues></_>
        <_>
          <internalNodes>
            0 -1 53 1.7377374693751335e-02</internalNodes>
          <leafValues>
            -2.1761052310466766e-01 7.3501580953598022e-01</leafValues></_>
        <_>
          <internalNodes>
            0 -1 9 -5.8528874069452286e-03</internalNodes>
          <leafValues>
            -8.5694617033004761e-01 1.8083615601062775e-01</leafValues></_>
        <_>
          <internalNodes>
            0 -1 178 -8.8859480456449091e-05</internalNodes>
          <leafValues>
            -5.5580377578735352e-01 2.0543777942657471e-01</leafValues></_>
        <_>
          <internalNodes>
            0 -1 85 -2.5138845667243004e-03</internalNodes>
          <leafValues>
            -9.7888380289077759e-01 8.6742714047431946e-02</leafValues></_></weakClassifiers></_>
    <!-- stage 14 -->
    <_>
      <maxWeakCount>10</maxWeakCount>
      <stageThreshold>-1.6050193309783936e+00</stageThreshold>
      <weakClassifiers>
        <_>
          <internalNodes>
            0 -1 128 -3.8130243774503469e-04</internalNodes>
          <leafValues>
            4.3360000848770142e-01 -5.3258848190307617e-01</leafValues></_>
        <_>
          <internalNodes>
            0 -1 21 -3.9418158121407032e-03</internalNodes>
          <leafValues>
            2.6950600743293762e-01 -7.7682638168334961e-01</leafValues></_>
        <_>
          <internalNodes>
            0 -1 146 2.3967230226844549e-03</internalNodes>
          <leafValues>
            -5.1336193084716797e-01 3.5097086429595947e-01</leafValues></_>
        <_>
          <internalNodes>
            0 -1 139 -2.4508847855031490e-04</internalNodes>
          <leafValues>
            4.4996690750122070e-01 -3.4795999526977539e-01</leafValues></_>
        <_>
          <internalNodes>
            0 -1 92 -1.8217443721368909e-03</internalNodes>
          <leafValues>
            -8.2785534858703613e-01 1.8921700119972229e-01</leafValues></_>
        <_>
          <internalNodes>
            0 -1 158 9.0077024651691318e-05</internalNodes>
          <leafValues>
            2.2544325888156891e-01 -7.4851465225219727e-01</leafValues></_>
        <_>
          <internalNodes>
            0 -1 11 -5.0405687652528286e-03</internalNodes>
          <leafValues>
            -7.6949322223663330e-01 1.5022581815719604e-01</leafValues></_>
        <_>
          <internalNodes>
            0 -1 151 -5.0149369053542614e-04</internalNodes>
          <leafValues>
            -7.4470371007919312e-01 1.5031698346138000e-01</leafValues></_>
        <_>
          <internalNodes>
            0 -1 164 -5.9737695846706629e-04</internalNodes>
          <leafValues>
            -1. 1.0610710084438324e-01</leafValues></_>
        <_>
          <internalNodes>
            0 -1 48 -1.6577858477830887e-02</internalNodes>
          <leafValues>
            5.7755208015441895e-01 -2.5559267401695251e-01</leafValues></_></weakClassifiers></_>
    <!-- stage 15 -->
    <_>
      <maxWeakCount>10</maxWeakCount>
      <stageThreshold>-1.4256273508071899e+00</stageThreshold>
      <weakClassifiers>
        <_>
          <internalNodes>
            0 -1 163 -2.4832133203744888e-04</internalNodes>
          <leafValues>
            3.0188679695129395e-01 -6.5452408790588379e-01</leafValues></_>
        <_>
          <internalNodes>
            0 -1 113 -7.3629440739750862e-03</internalNodes>
          <leafValues>
            3.2010236382484436e-01 -5.7108515501022339e-01</leafValues></_>
        <_>
          <internalNodes>
            0 -1 94 -4.3151501566171646e-02</internalNodes>
          <leafValues>
            1.6906018555164337e-01 -9.1928255558013916e-01</leafValues></_>
        <_>
          <internalNodes>
            0 -1 65 3.7716210499638692e-05</internalNodes>
          <leafValues>
            -5.5819588899612427e-01 3.1693097949028015e-01</leafValues></_>
        <_>
          <internalNodes>
            0 -1 170 -4.5996119297342375e-05</internalNodes>
          <leafValues>
            -8.2767945528030396e-01 1.6662436723709106e-01</leafValues></_>
        <_>
          <internalNodes>
            0 -1 8 4.2718239128589630e-02</internalNodes>
          <leafValues>
            1.4512874186038971e-01 -9.9586164951324463e-01</leafValues></_>
        <_>
          <internalNodes>
            0 -1 150 -7.0077937562018633e-04</internalNodes>
          <leafValues>
            5.3901362419128418e-01 -3.3127319812774658e-01</leafValues></_>
        <_>
          <internalNodes>
            0 -1 114 4.0068808943033218e-02</internalNodes>
          <leafValues>
            -3.9512991905212402e-01 5.6532418727874756e-01</leafValues></_>
        <_>
          <internalNodes>
            0 -1 137 -6.1954190023243427e-03</internalNodes>
          <leafValues>
            -9.8393082618713379e-01 2.3603604733943939e-01</leafValues></_>
        <_>
          <internalNodes>
            0 -1 115 -2.9780056327581406e-02</internalNodes>
          <leafValues>
            7.0619934797286987e-01 -2.7639031410217285e-01</leafValues></_></weakClassifiers></_>
    <!-- stage 16 -->
    <_>
      <maxWeakCount>10</maxWeakCount>
      <stageThreshold>-1.3235303163528442e+00</stageThreshold>
      <weakClassifiers>
        <_>
          <internalNodes>
            0 -1 171 4.5319492346607149e-04</internalNodes>
          <leafValues>
            -8.4246575832366943e-01 1.7130044102668762e-01</leafValues></_>
        <_>
          <internalNodes>
            0 -1 70 9.4101484864950180e-03</internalNodes>
          <leafValues>
            -5.3245562314987183e-01 4.3789890408515930e-01</leafValues></_>
        <_>
          <internalNodes>
            0 -1 108 4.1114928899332881e-04</internalNodes>
          <leafValues>
            -7.8712344169616699e-01 2.2903680801391602e-01</leafValues></_>
        <_>
          <internalNodes>
            0 -1 45 -1.5643066726624966e-03</internalNodes>
          <leafValues>
            3.2292604446411133e-01 -5.6734997034072876e-01</leafValues></_>
        <_>
          <internalNodes>
            0 -1 183 4.8547954065725207e-05</internalNodes>
          <leafValues>
            1.8771889805793762e-01 -8.0264693498611450e-01</leafValues></_>
        <_>
          <internalNodes>
            0 -1 160 -1.0694635566323996e-03</internalNodes>
          <leafValues>
            4.2914360761642456e-01 -3.9735358953475952e-01</leafValues></_>
        <_>
          <internalNodes>
            0 -1 118 1.5070488443598151e-03</internalNodes>
          <leafValues>
            -3.5101753473281860e-01 4.7961556911468506e-01</leafValues></_>
        <_>
          <internalNodes>
            0 -1 0 3.8654915988445282e-02</internalNodes>
          <leafValues>
            -2.8164124488830566e-01 6.7428177595138550e-01</leafValues></_>
        <_>
          <internalNodes>
            0 -1 47 8.4093597251921892e-05</internalNodes>
          <leafValues>
            3.4592780470848083e-01 -5.3220820426940918e-01</leafValues></_>
        <_>
          <internalNodes>
            0 -1 5 -3.3217095769941807e-03</internalNodes>
          <leafValues>
            -8.3114081621170044e-01 1.8132106959819794e-01</leafValues></_></weakClassifiers></_>
    <!-- stage 17 -->
    <_>
      <maxWeakCount>10</maxWeakCount>
      <stageThreshold>-1.5489234924316406e+00</stageThreshold>
      <weakClassifiers>
        <_>
          <internalNodes>
            0 -1 135 5.3414318244904280e-04</internalNodes>
          <leafValues>
            -6.3083606958389282e-01 3.5989716649055481e-01</leafValues></_>
        <_>
          <internalNodes>
            0 -1 101 -2.7208443498238921e-04</internalNodes>
          <leafValues>
            4.5970594882965088e-01 -4.9361962080001831e-01</leafValues></_>
        <_>
          <internalNodes>
            0 -1 24 5.3191850893199444e-03</internalNodes>
          <leafValues>
            -2.6166060566902161e-01 6.6622370481491089e-01</leafValues></_>
        <_>
          <internalNodes>
            0 -1 95 7.2945542633533478e-03</internalNodes>
          <leafValues>
            3.6360546946525574e-01 -5.0049448013305664e-01</leafValues></_>
        <_>
          <internalNodes>
            0 -1 76 2.4336159229278564e-02</internalNodes>
          <leafValues>
            -7.9777526855468750e-01 2.5537082552909851e-01</leafValues></_>
        <_>
          <internalNodes>
            0 -1 109 1.4384696260094643e-04</internalNodes>
          <leafValues>
            1.4889946579933167e-01 -8.2401812076568604e-01</leafValues></_>
        <_>
          <internalNodes>
            0 -1 41 8.5859876126050949e-03</internalNodes>
          <leafValues>
            -5.0448668003082275e-01 3.2704642415046692e-01</leafValues></_>
        <_>
          <internalNodes>
            0 -1 130 -1.3628873603011016e-05</internalNodes>
          <leafValues>
            3.6958143115043640e-01 -4.0019318461418152e-01</leafValues></_>
        <_>
          <internalNodes>
            0 -1 142 -2.8468464734032750e-04</internalNodes>
          <leafValues>
            4.3141505122184753e-01 -3.5272115468978882e-01</leafValues></_>
        <_>
          <internalNodes>
            0 -1 107 1.4768432080745697e-01</internalNodes>
          <leafValues>
            -4.0481176972389221e-01 4.2104333639144897e-01</leafValues></_></weakClassifiers></_>
    <!-- stage 18 -->
    <_>
      <maxWeakCount>10</maxWeakCount>
      <stageThreshold>-1.7985504865646362e+00</stageThreshold>
      <weakClassifiers>
        <_>
          <internalNodes>
            0 -1 136 -1.5486651682294905e-04</internalNodes>
          <leafValues>
            2.7314814925193787e-01 -6.4311379194259644e-01</leafValues></_>
        <_>
          <internalNodes>
            0 -1 66 -3.0469750054180622e-03</internalNodes>
          <leafValues>
            2.7685582637786865e-01 -7.5986337661743164e-01</leafValues></_>
        <_>
          <internalNodes>
            0 -1 27 5.5056950077414513e-04</internalNodes>
          <leafValues>
            -4.9732998013496399e-01 3.4839019179344177e-01</leafValues></_>
        <_>
          <internalNodes>
            0 -1 37 -2.5333262979984283e-02</internalNodes>
          <leafValues>
            7.1719038486480713e-01 -2.7534279227256775e-01</leafValues></_>
        <_>
          <internalNodes>
            0 -1 129 -5.7750416453927755e-04</internalNodes>
          <leafValues>
            5.4513877630233765e-01 -4.4602218270301819e-01</leafValues></_>
        <_>
          <internalNodes>
            0 -1 96 2.4064559489488602e-02</internalNodes>
          <leafValues>
            2.8710269927978516e-01 -9.3288695812225342e-01</leafValues></_>
        <_>
          <internalNodes>
            0 -1 90 -4.1774369310587645e-04</internalNodes>
          <leafValues>
            4.2694035172462463e-01 -4.7536158561706543e-01</leafValues></_>
        <_>
          <internalNodes>
            0 -1 1 -1.0605113208293915e-01</internalNodes>
          <leafValues>
            3.7067541480064392e-01 -5.0090962648391724e-01</leafValues></_>
        <_>
          <internalNodes>
            0 -1 176 -9.9523356766439974e-05</internalNodes>
          <leafValues>
            -8.5767155885696411e-01 2.2098158299922943e-01</leafValues></_>
        <_>
          <internalNodes>
            0 -1 67 -3.1613209284842014e-04</internalNodes>
          <leafValues>
            2.5458937883377075e-01 -4.9473741650581360e-01</leafValues></_></weakClassifiers></_>
    <!-- stage 19 -->
    <_>
      <maxWeakCount>9</maxWeakCount>
      <stageThreshold>-1.6358242034912109e+00</stageThreshold>
      <weakClassifiers>
        <_>
          <internalNodes>
            0 -1 97 2.1008421026635915e-04</internalNodes>
          <leafValues>
            -4.6945336461067200e-01 6.2197804450988770e-01</leafValues></_>
        <_>
          <internalNodes>
            0 -1 77 3.4128548577427864e-05</internalNodes>
          <leafValues>
            -6.9194424152374268e-01 3.4825038909912109e-01</leafValues></_>
        <_>
          <internalNodes>
            0 -1 173 8.3973351866006851e-04</internalNodes>
          <leafValues>
            -8.0999803543090820e-01 2.2884395718574524e-01</leafValues></_>
        <_>
          <internalNodes>
            0 -1 98 2.3311716504395008e-03</internalNodes>
          <leafValues>
            1.7524789273738861e-01 -9.5226329565048218e-01</leafValues></_>
        <_>
          <internalNodes>
            0 -1 179 2.1493437234312296e-03</internalNodes>
          <leafValues>
            2.0239943265914917e-01 -8.9452975988388062e-01</leafValues></_>
        <_>
          <internalNodes>
            0 -1 43 -2.0430070161819458e-01</internalNodes>
          <leafValues>
            2.2697138786315918e-01 -6.6099053621292114e-01</leafValues></_>
        <_>
          <internalNodes>
            0 -1 36 -7.5678780674934387e-02</internalNodes>
          <leafValues>
            5.0248962640762329e-01 -4.0950927138328552e-01</leafValues></_>
        <_>
          <internalNodes>
            0 -1 50 8.1315217539668083e-04</internalNodes>
          <leafValues>
            -3.6260211467742920e-01 6.3846260309219360e-01</leafValues></_>
        <_>
          <internalNodes>
            0 -1 83 -1.3654078356921673e-03</internalNodes>
          <leafValues>
            -8.6308479309082031e-01 2.9959464073181152e-01</leafValues></_></weakClassifiers></_></stages>
  <features>
    <_>
      <rects>
        <_>
          0 0 1 24 -1.</_>
        <_>
          0 8 1 8 3.</_></rects>
      <tilted>0</tilted></_>
    <_>
      <rects>
        <_>
          0 0 12 24 -1.</_>
        <_>
          4 0 4 24 3.</_></rects>
      <tilted>0</tilted></_>
    <_>
      <rects>
        <_>
          0 0 16 8 -1.</_>
        <_>
          0 0 8 4 2.</_>
        <_>
          8 4 8 4 2.</_></rects>
      <tilted>0</tilted></_>
    <_>
      <rects>
        <_>
          0 0 18 1 -1.</_>
        <_>
          9 0 9 1 2.</_></rects>
      <tilted>0</tilted></_>
    <_>
      <rects>
        <_>
          0 0 18 8 -1.</_>
        <_>
          0 0 9 4 2.</_>
        <_>
          9 4 9 4 2.</_></rects>
      <tilted>0</tilted></_>
    <_>
      <rects>
        <_>
          0 0 22 1 -1.</_>
        <_>
          11 0 11 1 2.</_></rects>
      <tilted>0</tilted></_>
    <_>
      <rects>
        <_>
          0 0 24 11 -1.</_>
        <_>
          12 0 12 11 2.</_></rects>
      <tilted>0</tilted></_>
    <_>
      <rects>
        <_>
          0 1 1 10 -1.</_>
        <_>
          0 6 1 5 2.</_></rects>
      <tilted>0</tilted></_>
    <_>
      <rects>
        <_>
          0 1 12 13 -1.</_>
        <_>
          6 1 6 13 2.</_></rects>
      <tilted>0</tilted></_>
    <_>
      <rects>
        <_>
          0 2 1 12 -1.</_>
        <_>
          0 8 1 6 2.</_></rects>
      <tilted>0</tilted></_>
    <_>
      <rects>
        <_>
          0 2 9 17 -1.</_>
        <_>
          3 2 3 17 3.</_></rects>
      <tilted>0</tilted></_>
    <_>
      <rects>
        <_>
          0 2 24 6 -1.</_>
        <_>
          12 2 12 6 2.</_></rects>
      <tilted>0</tilted></_>
    <_>
      <rects>
        <_>
          0 3 12 20 -1.</_>
        <_>
          4 3 4 20 3.</_></rects>
      <tilted>0</tilted></_>
    <_>
      <rects>
        <_>
          0 4 20 7 -1.</_>
        <_>
          10 4 10 7 2.</_></rects>
      <tilted>0</tilted></_>
    <_>
      <rects>
        <_>
          0 5 15 17 -1.</_>
        <_>
          5 5 5 17 3.</_></rects>
      <tilted>0</tilted></_>
    <_>
      <rects>
        <_>
          0 6 8 15 -1.</_>
        <_>
          4 6 4 15 2.</_></rects>
      <tilted>0</tilted></_>
    <_>
      <rects>
        <_>
          0 7 12 7 -1.</_>
        <_>
          4 7 4 7 3.</_></rects>
      <tilted>0</tilted></_>
    <_>
      <rects>
        <_>
          0 7 8 4 -1.</_>
        <_>
          0 9 8 2 2.</_></rects>
      <tilted>0</tilted></_>
    <_>
      <rects>
        <_>
          0 8 6 11 -1.</_>
        <_>
          3 8 3 11 2.</_></rects>
      <tilted>0</tilted></_>
    <_>
      <rects>
        <_>
          0 8 12 7 -1.</_>
        <_>
          4 8 4 7 3.</_></rects>
      <tilted>0</tilted></_>
    <_>
      <rects>
        <_>
          0 9 7 4 -1.</_>
        <_>
          0 11 7 2 2.</_></rects>
      <tilted>0</tilted></_>
    <_>
      <rects>
        <_>
          0 9 8 4 -1.</_>
        <_>
          0 11 8 2 2.</_></rects>
      <tilted>0</tilted></_>
    <_>
      <rects>
        <_>
          0 9 15 10 -1.</_>
        <_>
          0 14 15 5 2.</_></rects>
      <tilted>0</tilted></_>
    <_>
      <rects>
        <_>
          0 10 6 11 -1.</_>
        <_>
          2 10 2 11 3.</_></rects>
      <tilted>0</tilted></_>
    <_>
      <rects>
        <_>
          0 12 2 12 -1.</_>
        <_>
          1 12 1 12 2.</_></rects>
      <tilted>0</tilted></_>
    <_>
      <rects>
        <_>
          0 12 4 12 -1.</_>
        <_>
          0 12 2 6 2.</_>
        <_>
          2 18 2 6 2.</_></rects>
      <tilted>0</tilted></_>
    <_>
      <rects>
        <_>
          0 15 9 8 -1.</_>
        <_>
          3 15 3 8 3.</_></rects>
      <tilted>0</tilted></_>
    <_>
      <rects>
        <_>
          0 16 3 4 -1.</_>
        <_>
          1 16 1 4 3.</_></rects>
      <tilted>0</tilted></_>
    <_>
      <rects>
        <_>
          0 16 12 8 -1.</_>
        <_>
          0 16 6 4 2.</_>
        <_>
          6 20 6 4 2.</_></rects>
      <tilted>0</tilted></_>
    <_>
      <rects>
        <_>
          0 18 24 3 -1.</_>
        <_>
          8 18 8 3 3.</_></rects>
      <tilted>0</tilted></_>
    <_>
      <rects>
        <_>
          0 20 12 4 -1.</_>
        <_>
          0 20 6 2 2.</_>
        <_>
          6 22 6 2 2.</_></rects>
      <tilted>0</tilted></_>
    <_>
      <rects>
        <_>
          0 21 1 3 -1.</_>
        <_>
          0 22 1 1 3.</_></rects>
      <tilted>0</tilted></_>
    <_>
      <rects>
        <_>
          0 22 1 2 -1.</_>
        <_>
          0 23 1 1 2.</_></rects>
      <tilted>0</tilted></_>
    <_>
      <rects>
        <_>
          0 22 3 1 -1.</_>
        <_>
          1 22 1 1 3.</_></rects>
      <tilted>0</tilted></_>
    <_>
      <rects>
        <_>
          1 0 12 1 -1.</_>
        <_>
          7 0 6 1 2.</_></rects>
      <tilted>0</tilted></_>
    <_>
      <rects>
        <_>
          1 0 14 8 -1.</_>
        <_>
          1 0 7 4 2.</_>
        <_>
          8 4 7 4 2.</_></rects>
      <tilted>0</tilted></_>
    <_>
      <rects>
        <_>
          1 10 8 9 -1.</_>
        <_>
          5 10 4 9 2.</_></rects>
      <tilted>0</tilted></_>
    <_>
      <rects>
        <_>
          1 14 8 2 -1.</_>
        <_>
          5 14 4 2 2.</_></rects>
      <tilted>0</tilted></_>
    <_>
      <rects>
        <_>
          1 15 18 6 -1.</_>
        <_>
          7 15 6 6 3.</_></rects>
      <tilted>0</tilted></_>
    <_>
      <rects>
        <_>
          1 19 6 2 -1.</_>
        <_>
          1 19 3 1 2.</_>
        <_>
          4 20 3 1 2.</_></rects>
      <tilted>0</tilted></_>
    <_>
      <rects>
        <_>
          1 23 2 1 -1.</_>
        <_>
          2 23 1 1 2.</_></rects>
      <tilted>0</tilted></_>
    <_>
      <rects>
        <_>
          2 2 4 9 -1.</_>
        <_>
          2 5 4 3 3.</_></rects>
      <tilted>0</tilted></_>
    <_>
      <rects>
        <_>
          2 2 10 16 -1.</_>
        <_>
          2 10 10 8 2.</_></rects>
      <tilted>0</tilted></_>
    <_>
      <rects>
        <_>
          2 2 22 16 -1.</_>
        <_>
          2 10 22 8 2.</_></rects>
      <tilted>0</tilted></_>
    <_>
      <rects>
        <_>
          2 4 18 3 -1.</_>
        <_>
          11 4 9 3 2.</_></rects>
      <tilted>0</tilted></_>
    <_>
      <rects>
        <_>
          2 6 7 2 -1.</_>
        <_>
          2 7 7 1 2.</_></rects>
      <tilted>0</tilted></_>
    <_>
      <rects>
        <_>
          2 15 17 9 -1.</_>
        <_>
          2 18 17 3 3.</_></rects>
      <tilted>0</tilted></_>
    <_>
      <rects>
        <_>
          2 22 2 2 -1.</_>
        <_>
          3 22 1 2 2.</_></rects>
      <tilted>0</tilted></_>
    <_>
      <rects>
        <_>
          3 1 13 6 -1.</_>
        <_>
          3 3 13 2 3.</_></rects>
      <tilted>0</tilted></_>
    <_>
      <rects>
        <_>
          3 7 5 2 -1.</_>
        <_>
          3 8 5 1 2.</_></rects>
      <tilted>0</tilted></_>
    <_>
      <rects>
        <_>
          3 11 4 2 -1.</_>
        <_>
          5 11 2 2 2.</_></rects>
      <tilted>0</tilted></_>
    <_>
      <rects>
        <_>
          3 15 10 9 -1.</_>
        <_>
          3 18 10 3 3.</_></rects>
      <tilted>0</tilted></_>
    <_>
      <rects>
        <_>
          3 15 17 9 -1.</_>
        <_>
          3 18 17 3 3.</_></rects>
      <tilted>0</tilted></_>
    <_>
      <rects>
        <_>
          3 22 12 2 -1.</_>
        <_>
          3 23 12 1 2.</_></rects>
      <tilted>0</tilted></_>
    <_>
      <rects>
        <_>
          4 0 15 12 -1.</_>
        <_>
          4 4 15 4 3.</_></rects>
      <tilted>0</tilted></_>
    <_>
      <rects>
        <_>
          4 2 18 12 -1.</_>
        <_>
          4 8 18 6 2.</_></rects>
      <tilted>0</tilted></_>
    <_>
      <rects>
        <_>
          4 5 20 16 -1.</_>
        <_>
          14 5 10 16 2.</_></rects>
      <tilted>0</tilted></_>
    <_>
      <rects>
        <_>
          4 6 5 2 -1.</_>
        <_>
          4 7 5 1 2.</_></rects>
      <tilted>0</tilted></_>
    <_>
      <rects>
        <_>
          5 0 18 10 -1.</_>
        <_>
          14 0 9 10 2.</_></rects>
      <tilted>0</tilted></_>
    <_>
      <rects>
        <_>
          5 0 17 18 -1.</_>
        <_>
          5 9 17 9 2.</_></rects>
      <tilted>0</tilted></_>
    <_>
      <rects>
        <_>
          5 1 6 6 -1.</_>
        <_>
          5 3 6 2 3.</_></rects>
      <tilted>0</tilted></_>
    <_>
      <rects>
        <_>
          5 2 18 6 -1.</_>
        <_>
          5 5 18 3 2.</_></rects>
      <tilted>0</tilted></_>
    <_>
      <rects>
        <_>
          5 9 2 1 -1.</_>
        <_>
          6 9 1 1 2.</_></rects>
      <tilted>0</tilted></_>
    <_>
      <rects>
        <_>
          5 18 16 2 -1.</_>
        <_>
          5 18 8 1 2.</_>
        <_>
          13 19 8 1 2.</_></rects>
      <tilted>0</tilted></_>
    <_>
      <rects>
        <_>
          6 10 2 1 -1.</_>
        <_>
          7 10 1 1 2.</_></rects>
      <tilted>0</tilted></_>
    <_>
      <rects>
        <_>
          6 11 2 1 -1.</_>
        <_>
          7 11 1 1 2.</_></rects>
      <tilted>0</tilted></_>
    <_>
      <rects>
        <_>
          6 11 8 4 -1.</_>
        <_>
          6 13 8 2 2.</_></rects>
      <tilted>0</tilted></_>
    <_>
      <rects>
        <_>
          6 16 3 4 -1.</_>
        <_>
          7 16 1 4 3.</_></rects>
      <tilted>0</tilted></_>
    <_>
      <rects>
        <_>
          6 20 9 4 -1.</_>
        <_>
          9 20 3 4 3.</_></rects>
      <tilted>0</tilted></_>
    <_>
      <rects>
        <_>
          7 0 4 18 -1.</_>
        <_>
          9 0 2 18 2.</_></rects>
      <tilted>0</tilted></_>
    <_>
      <rects>
        <_>
          7 5 9 14 -1.</_>
        <_>
          10 5 3 14 3.</_></rects>
      <tilted>0</tilted></_>
    <_>
      <rects>
        <_>
          7 10 16 12 -1.</_>
        <_>
          7 10 8 6 2.</_>
        <_>
          15 16 8 6 2.</_></rects>
      <tilted>0</tilted></_>
    <_>
      <rects>
        <_>
          7 18 16 6 -1.</_>
        <_>
          7 18 8 3 2.</_>
        <_>
          15 21 8 3 2.</_></rects>
      <tilted>0</tilted></_>
    <_>
      <rects>
        <_>
          8 0 12 16 -1.</_>
        <_>
          8 8 12 8 2.</_></rects>
      <tilted>0</tilted></_>
    <_>
      <rects>
        <_>
          8 1 16 18 -1.</_>
        <_>
          8 10 16 9 2.</_></rects>
      <tilted>0</tilted></_>
    <_>
      <rects>
        <_>
          8 3 16 9 -1.</_>
        <_>
          16 3 8 9 2.</_></rects>
      <tilted>0</tilted></_>
    <_>
      <rects>
        <_>
          8 4 16 7 -1.</_>
        <_>
          16 4 8 7 2.</_></rects>
      <tilted>0</tilted></_>
    <_>
      <rects>
        <_>
          8 12 2 1 -1.</_>
        <_>
          9 12 1 1 2.</_></rects>
      <tilted>0</tilted></_>
    <_>
      <rects>
        <_>
          8 19 14 4 -1.</_>
        <_>
          15 19 7 4 2.</_></rects>
      <tilted>0</tilted></_>
    <_>
      <rects>
        <_>
          9 0 8 3 -1.</_>
        <_>
          9 1 8 1 3.</_></rects>
      <tilted>0</tilted></_>
    <_>
      <rects>
        <_>
          9 0 9 8 -1.</_>
        <_>
          9 4 9 4 2.</_></rects>
      <tilted>0</tilted></_>
    <_>
      <rects>
        <_>
          9 6 6 13 -1.</_>
        <_>
          11 6 2 13 3.</_></rects>
      <tilted>0</tilted></_>
    <_>
      <rects>
        <_>
          9 11 14 10 -1.</_>
        <_>
          9 11 7 5 2.</_>
        <_>
          16 16 7 5 2.</_></rects>
      <tilted>0</tilted></_>
    <_>
      <rects>
        <_>
          9 15 2 9 -1.</_>
        <_>
          10 15 1 9 2.</_></rects>
      <tilted>0</tilted></_>
    <_>
      <rects>
        <_>
          9 16 14 7 -1.</_>
        <_>
          16 16 7 7 2.</_></rects>
      <tilted>0</tilted></_>
    <_>
      <rects>
        <_>
          9 18 6 2 -1.</_>
        <_>
          12 18 3 2 2.</_></rects>
      <tilted>0</tilted></_>
    <_>
      <rects>
        <_>
          10 3 13 12 -1.</_>
        <_>
          10 9 13 6 2.</_></rects>
      <tilted>0</tilted></_>
    <_>
      <rects>
        <_>
          10 4 14 15 -1.</_>
        <_>
          17 4 7 15 2.</_></rects>
      <tilted>0</tilted></_>
    <_>
      <rects>
        <_>
          10 11 10 12 -1.</_>
        <_>
          10 11 5 6 2.</_>
        <_>
          15 17 5 6 2.</_></rects>
      <tilted>0</tilted></_>
    <_>
      <rects>
        <_>
          10 12 2 7 -1.</_>
        <_>
          11 12 1 7 2.</_></rects>
      <tilted>0</tilted></_>
    <_>
      <rects>
        <_>
          10 17 2 2 -1.</_>
        <_>
          10 18 2 1 2.</_></rects>
      <tilted>0</tilted></_>
    <_>
      <rects>
        <_>
          10 20 14 4 -1.</_>
        <_>
          10 20 7 2 2.</_>
        <_>
          17 22 7 2 2.</_></rects>
      <tilted>0</tilted></_>
    <_>
      <rects>
        <_>
          10 20 11 4 -1.</_>
        <_>
          10 22 11 2 2.</_></rects>
      <tilted>0</tilted></_>
    <_>
      <rects>
        <_>
          11 0 5 14 -1.</_>
        <_>
          11 7 5 7 2.</_></rects>
      <tilted>0</tilted></_>
    <_>
      <rects>
        <_>
          11 0 7 14 -1.</_>
        <_>
          11 7 7 7 2.</_></rects>
      <tilted>0</tilted></_>
    <_>
      <rects>
        <_>
          11 1 6 13 -1.</_>
        <_>
          14 1 3 13 2.</_></rects>
      <tilted>0</tilted></_>
    <_>
      <rects>
        <_>
          11 4 13 15 -1.</_>
        <_>
          11 9 13 5 3.</_></rects>
      <tilted>0</tilted></_>
    <_>
      <rects>
        <_>
          11 6 1 2 -1.</_>
        <_>
          11 7 1 1 2.</_></rects>
      <tilted>0</tilted></_>
    <_>
      <rects>
        <_>
          11 9 3 13 -1.</_>
        <_>
          12 9 1 13 3.</_></rects>
      <tilted>0</tilted></_>
    <_>
      <rects>
        <_>
          11 12 12 12 -1.</_>
        <_>
          11 16 12 4 3.</_></rects>
      <tilted>0</tilted></_>
    <_>
      <rects>
        <_>
          11 17 10 6 -1.</_>
        <_>
          11 17 5 3 2.</_>
        <_>
          16 20 5 3 2.</_></rects>
      <tilted>0</tilted></_>
    <_>
      <rects>
        <_>
          11 18 1 2 -1.</_>
        <_>
          11 19 1 1 2.</_></rects>
      <tilted>0</tilted></_>
    <_>
      <rects>
        <_>
          11 20 4 4 -1.</_>
        <_>
          13 20 2 4 2.</_></rects>
      <tilted>0</tilted></_>
    <_>
      <rects>
        <_>
          11 21 2 2 -1.</_>
        <_>
          12 21 1 2 2.</_></rects>
      <tilted>0</tilted></_>
    <_>
      <rects>
        <_>
          12 6 12 14 -1.</_>
        <_>
          16 6 4 14 3.</_></rects>
      <tilted>0</tilted></_>
    <_>
      <rects>
        <_>
          12 7 3 17 -1.</_>
        <_>
          13 7 1 17 3.</_></rects>
      <tilted>0</tilted></_>
    <_>
      <rects>
        <_>
          12 7 12 4 -1.</_>
        <_>
          12 9 12 2 2.</_></rects>
      <tilted>0</tilted></_>
    <_>
      <rects>
        <_>
          12 12 12 11 -1.</_>
        <_>
          18 12 6 11 2.</_></rects>
      <tilted>0</tilted></_>
    <_>
      <rects>
        <_>
          12 15 2 9 -1.</_>
        <_>
          13 15 1 9 2.</_></rects>
      <tilted>0</tilted></_>
    <_>
      <rects>
        <_>
          13 0 8 1 -1.</_>
        <_>
          17 0 4 1 2.</_></rects>
      <tilted>0</tilted></_>
    <_>
      <rects>
        <_>
          13 1 1 8 -1.</_>
        <_>
          13 5 1 4 2.</_></rects>
      <tilted>0</tilted></_>
    <_>
      <rects>
        <_>
          13 3 4 1 -1.</_>
        <_>
          15 3 2 1 2.</_></rects>
      <tilted>0</tilted></_>
    <_>
      <rects>
        <_>
          13 8 6 4 -1.</_>
        <_>
          16 8 3 4 2.</_></rects>
      <tilted>0</tilted></_>
    <_>
      <rects>
        <_>
          13 10 3 8 -1.</_>
        <_>
          13 14 3 4 2.</_></rects>
      <tilted>0</tilted></_>
    <_>
      <rects>
        <_>
          13 11 8 12 -1.</_>
        <_>
          13 11 4 6 2.</_>
        <_>
          17 17 4 6 2.</_></rects>
      <tilted>0</tilted></_>
    <_>
      <rects>
        <_>
          13 11 10 10 -1.</_>
        <_>
          13 11 5 5 2.</_>
        <_>
          18 16 5 5 2.</_></rects>
      <tilted>0</tilted></_>
    <_>
      <rects>
        <_>
          13 12 8 12 -1.</_>
        <_>
          13 12 4 6 2.</_>
        <_>
          17 18 4 6 2.</_></rects>
      <tilted>0</tilted></_>
    <_>
      <rects>
        <_>
          13 15 10 8 -1.</_>
        <_>
          18 15 5 8 2.</_></rects>
      <tilted>0</tilted></_>
    <_>
      <rects>
        <_>
          13 18 8 2 -1.</_>
        <_>
          13 18 4 1 2.</_>
        <_>
          17 19 4 1 2.</_></rects>
      <tilted>0</tilted></_>
    <_>
      <rects>
        <_>
          14 0 10 10 -1.</_>
        <_>
          14 0 5 5 2.</_>
        <_>
          19 5 5 5 2.</_></rects>
      <tilted>0</tilted></_>
    <_>
      <rects>
        <_>
          14 6 10 2 -1.</_>
        <_>
          14 7 10 1 2.</_></rects>
      <tilted>0</tilted></_>
    <_>
      <rects>
        <_>
          14 9 10 8 -1.</_>
        <_>
          14 13 10 4 2.</_></rects>
      <tilted>0</tilted></_>
    <_>
      <rects>
        <_>
          15 0 3 4 -1.</_>
        <_>
          15 2 3 2 2.</_></rects>
      <tilted>0</tilted></_>
    <_>
      <rects>
        <_>
          15 0 9 4 -1.</_>
        <_>
          15 2 9 2 2.</_></rects>
      <tilted>0</tilted></_>
    <_>
      <rects>
        <_>
          15 1 9 22 -1.</_>
        <_>
          15 12 9 11 2.</_></rects>
      <tilted>0</tilted></_>
    <_>
      <rects>
        <_>
          15 5 8 17 -1.</_>
        <_>
          19 5 4 17 2.</_></rects>
      <tilted>0</tilted></_>
    <_>
      <rects>
        <_>
          15 6 9 13 -1.</_>
        <_>
          18 6 3 13 3.</_></rects>
      <tilted>0</tilted></_>
    <_>
      <rects>
        <_>
          15 6 9 14 -1.</_>
        <_>
          18 6 3 14 3.</_></rects>
      <tilted>0</tilted></_>
    <_>
      <rects>
        <_>
          15 9 2 2 -1.</_>
        <_>
          16 9 1 2 2.</_></rects>
      <tilted>0</tilted></_>
    <_>
      <rects>
        <_>
          16 8 2 4 -1.</_>
        <_>
          17 8 1 4 2.</_></rects>
      <tilted>0</tilted></_>
    <_>
      <rects>
        <_>
          16 9 2 1 -1.</_>
        <_>
          17 9 1 1 2.</_></rects>
      <tilted>0</tilted></_>
    <_>
      <rects>
        <_>
          16 9 2 6 -1.</_>
        <_>
          16 12 2 3 2.</_></rects>
      <tilted>0</tilted></_>
    <_>
      <rects>
        <_>
          16 16 8 3 -1.</_>
        <_>
          20 16 4 3 2.</_></rects>
      <tilted>0</tilted></_>
    <_>
      <rects>
        <_>
          17 7 2 2 -1.</_>
        <_>
          18 7 1 2 2.</_></rects>
      <tilted>0</tilted></_>
    <_>
      <rects>
        <_>
          17 8 2 10 -1.</_>
        <_>
          18 8 1 10 2.</_></rects>
      <tilted>0</tilted></_>
    <_>
      <rects>
        <_>
          18 1 1 4 -1.</_>
        <_>
          18 3 1 2 2.</_></rects>
      <tilted>0</tilted></_>
    <_>
      <rects>
        <_>
          18 5 4 1 -1.</_>
        <_>
          20 5 2 1 2.</_></rects>
      <tilted>0</tilted></_>
    <_>
      <rects>
        <_>
          18 5 6 2 -1.</_>
        <_>
          21 5 3 2 2.</_></rects>
      <tilted>0</tilted></_>
    <_>
      <rects>
        <_>
          18 8 2 4 -1.</_>
        <_>
          19 8 1 4 2.</_></rects>
      <tilted>0</tilted></_>
    <_>
      <rects>
        <_>
          18 9 2 2 -1.</_>
        <_>
          19 9 1 2 2.</_></rects>
      <tilted>0</tilted></_>
    <_>
      <rects>
        <_>
          19 7 2 1 -1.</_>
        <_>
          20 7 1 1 2.</_></rects>
      <tilted>0</tilted></_>
    <_>
      <rects>
        <_>
          19 7 2 2 -1.</_>
        <_>
          20 7 1 2 2.</_></rects>
      <tilted>0</tilted></_>
    <_>
      <rects>
        <_>
          19 8 2 4 -1.</_>
        <_>
          20 8 1 4 2.</_></rects>
      <tilted>0</tilted></_>
    <_>
      <rects>
        <_>
          19 10 2 5 -1.</_>
        <_>
          20 10 1 5 2.</_></rects>
      <tilted>0</tilted></_>
    <_>
      <rects>
        <_>
          20 0 2 4 -1.</_>
        <_>
          20 2 2 2 2.</_></rects>
      <tilted>0</tilted></_>
    <_>
      <rects>
        <_>
          20 0 4 8 -1.</_>
        <_>
          20 4 4 4 2.</_></rects>
      <tilted>0</tilted></_>
    <_>
      <rects>
        <_>
          20 3 3 6 -1.</_>
        <_>
          20 6 3 3 2.</_></rects>
      <tilted>0</tilted></_>
    <_>
      <rects>
        <_>
          20 7 4 12 -1.</_>
        <_>
          22 7 2 12 2.</_></rects>
      <tilted>0</tilted></_>
    <_>
      <rects>
        <_>
          20 9 2 1 -1.</_>
        <_>
          21 9 1 1 2.</_></rects>
      <tilted>0</tilted></_>
    <_>
      <rects>
        <_>
          20 9 2 7 -1.</_>
        <_>
          21 9 1 7 2.</_></rects>
      <tilted>0</tilted></_>
    <_>
      <rects>
        <_>
          20 11 2 5 -1.</_>
        <_>
          21 11 1 5 2.</_></rects>
      <tilted>0</tilted></_>
    <_>
      <rects>
        <_>
          20 18 3 4 -1.</_>
        <_>
          21 18 1 4 3.</_></rects>
      <tilted>0</tilted></_>
    <_>
      <rects>
        <_>
          20 20 4 4 -1.</_>
        <_>
          20 22 4 2 2.</_></rects>
      <tilted>0</tilted></_>
    <_>
      <rects>
        <_>
          21 0 1 8 -1.</_>
        <_>
          21 4 1 4 2.</_></rects>
      <tilted>0</tilted></_>
    <_>
      <rects>
        <_>
          21 7 3 6 -1.</_>
        <_>
          21 10 3 3 2.</_></rects>
      <tilted>0</tilted></_>
    <_>
      <rects>
        <_>
          21 8 2 2 -1.</_>
        <_>
          22 8 1 2 2.</_></rects>
      <tilted>0</tilted></_>
    <_>
      <rects>
        <_>
          22 4 2 10 -1.</_>
        <_>
          23 4 1 10 2.</_></rects>
      <tilted>0</tilted></_>
    <_>
      <rects>
        <_>
          22 5 2 3 -1.</_>
        <_>
          23 5 1 3 2.</_></rects>
      <tilted>0</tilted></_>
    <_>
      <rects>
        <_>
          22 7 2 1 -1.</_>
        <_>
          23 7 1 1 2.</_></rects>
      <tilted>0</tilted></_>
    <_>
      <rects>
        <_>
          22 8 2 2 -1.</_>
        <_>
          23 8 1 2 2.</_></rects>
      <tilted>0</tilted></_>
    <_>
      <rects>
        <_>
          22 8 2 8 -1.</_>
        <_>
          23 8 1 8 2.</_></rects>
      <tilted>0</tilted></_>
    <_>
      <rects>
        <_>
          22 9 2 8 -1.</_>
        <_>
          23 9 1 8 2.</_></rects>
      <tilted>0</tilted></_>
    <_>
      <rects>
        <_>
          22 12 2 3 -1.</_>
        <_>
          23 12 1 3 2.</_></rects>
      <tilted>0</tilted></_>
    <_>
      <rects>
        <_>
          22 13 2 3 -1.</_>
        <_>
          23 13 1 3 2.</_></rects>
      <tilted>0</tilted></_>
    <_>
      <rects>
        <_>
          22 15 2 1 -1.</_>
        <_>
          23 15 1 1 2.</_></rects>
      <tilted>0</tilted></_>
    <_>
      <rects>
        <_>
          23 0 1 12 -1.</_>
        <_>
          23 4 1 4 3.</_></rects>
      <tilted>0</tilted></_>
    <_>
      <rects>
        <_>
          23 0 1 15 -1.</_>
        <_>
          23 5 1 5 3.</_></rects>
      <tilted>0</tilted></_>
    <_>
      <rects>
        <_>
          23 0 1 12 -1.</_>
        <_>
          23 6 1 6 2.</_></rects>
      <tilted>0</tilted></_>
    <_>
      <rects>
        <_>
          23 0 1 16 -1.</_>
        <_>
          23 8 1 8 2.</_></rects>
      <tilted>0</tilted></_>
    <_>
      <rects>
        <_>
          23 1 1 6 -1.</_>
        <_>
          23 4 1 3 2.</_></rects>
      <tilted>0</tilted></_>
    <_>
      <rects>
        <_>
          23 3 1 6 -1.</_>
        <_>
          23 6 1 3 2.</_></rects>
      <tilted>0</tilted></_>
    <_>
      <rects>
        <_>
          23 4 1 8 -1.</_>
        <_>
          23 8 1 4 2.</_></rects>
      <tilted>0</tilted></_>
    <_>
      <rects>
        <_>
          23 4 1 10 -1.</_>
        <_>
          23 9 1 5 2.</_></rects>
      <tilted>0</tilted></_>
    <_>
      <rects>
        <_>
          23 4 1 15 -1.</_>
        <_>
          23 9 1 5 3.</_></rects>
      <tilted>0</tilted></_>
    <_>
      <rects>
        <_>
          23 5 1 4 -1.</_>
        <_>
          23 7 1 2 2.</_></rects>
      <tilted>0</tilted></_>
    <_>
      <rects>
        <_>
          23 5 1 6 -1.</_>
        <_>
          23 8 1 3 2.</_></rects>
      <tilted>0</tilted></_>
    <_>
      <rects>
        <_>
          23 6 1 4 -1.</_>
        <_>
          23 8 1 2 2.</_></rects>
      <tilted>0</tilted></_>
    <_>
      <rects>
        <_>
          23 6 1 6 -1.</_>
        <_>
          23 9 1 3 2.</_></rects>
      <tilted>0</tilted></_>
    <_>
      <rects>
        <_>
          23 7 1 6 -1.</_>
        <_>
          23 10 1 3 2.</_></rects>
      <tilted>0</tilted></_>
    <_>
      <rects>
        <_>
          23 7 1 9 -1.</_>
        <_>
          23 10 1 3 3.</_></rects>
      <tilted>0</tilted></_>
    <_>
      <rects>
        <_>
          23 7 1 12 -1.</_>
        <_>
          23 11 1 4 3.</_></rects>
      <tilted>0</tilted></_>
    <_>
      <rects>
        <_>
          23 10 1 12 -1.</_>
        <_>
          23 16 1 6 2.</_></rects>
      <tilted>0</tilted></_>
    <_>
      <rects>
        <_>
          23 11 1 12 -1.</_>
        <_>
          23 15 1 4 3.</_></rects>
      <tilted>0</tilted></_>
    <_>
      <rects>
        <_>
          23 16 1 6 -1.</_>
        <_>
          23 19 1 3 2.</_></rects>
      <tilted>0</tilted></_>
    <_>
      <rects>
        <_>
          23 19 1 4 -1.</_>
        <_>
          23 21 1 2 2.</_></rects>
      <tilted>0</tilted></_></features></cascade>
</opencv_storage>
