<?xml version="1.0"?>
<opencv_storage>
<stage12>
  <maxWeakCount>11</maxWeakCount>
  <stageThreshold>-1.3993375301361084e+00</stageThreshold>
  <weakClassifiers>
    <_>
      <internalNodes>
        0 -1 161696 -2.5478913448750973e-04</internalNodes>
      <leafValues>
        3.9756366610527039e-01 -5.8500671386718750e-01</leafValues></_>
    <_>
      <internalNodes>
        0 -1 95492 5.1258787512779236e-02</internalNodes>
      <leafValues>
        -5.9026259183883667e-01 4.0072685480117798e-01</leafValues></_>
    <_>
      <internalNodes>
        0 -1 162160 -4.8264511860907078e-05</internalNodes>
      <leafValues>
        -8.7416666746139526e-01 1.9518749415874481e-01</leafValues></_>
    <_>
      <internalNodes>
        0 -1 114753 -2.4964679032564163e-02</internalNodes>
      <leafValues>
        2.3242476582527161e-01 -7.7423989772796631e-01</leafValues></_>
    <_>
      <internalNodes>
        0 -1 88034 1.7339866608381271e-03</internalNodes>
      <leafValues>
        -6.2789618968963623e-01 2.3431046307086945e-01</leafValues></_>
    <_>
      <internalNodes>
        0 -1 161480 -1.8267261330038309e-03</internalNodes>
      <leafValues>
        -8.7297928333282471e-01 1.3856685161590576e-01</leafValues></_>
    <_>
      <internalNodes>
        0 -1 20378 -2.7075558900833130e-02</internalNodes>
      <leafValues>
        4.8596310615539551e-01 -3.1266948580741882e-01</leafValues></_>
    <_>
      <internalNodes>
        0 -1 162324 5.2032923122169450e-05</internalNodes>
      <leafValues>
        1.4235208928585052e-01 -8.3933019638061523e-01</leafValues></_>
    <_>
      <internalNodes>
        0 -1 119857 -1.9562855362892151e-02</internalNodes>
      <leafValues>
        2.8419029712677002e-01 -5.0217396020889282e-01</leafValues></_>
    <_>
      <internalNodes>
        0 -1 161712 -7.3654385050758719e-04</internalNodes>
      <leafValues>
        4.1449907422065735e-01 -3.6111319065093994e-01</leafValues></_>
    <_>
      <internalNodes>
        0 -1 138483 1.3109462997817900e-05</internalNodes>
      <leafValues>
        -7.4899256229400635e-01 1.6325379908084869e-01</leafValues></_></weakClassifiers></stage12>
</opencv_storage>
