<?xml version="1.0"?>
<opencv_storage>
<stage3>
  <maxWeakCount>8</maxWeakCount>
  <stageThreshold>-1.6470963954925537e+00</stageThreshold>
  <weakClassifiers>
    <_>
      <internalNodes>
        0 -1 5289 -1.2382380664348602e-01</internalNodes>
      <leafValues>
        6.7724865674972534e-01 -6.5995526313781738e-01</leafValues></_>
    <_>
      <internalNodes>
        0 -1 106642 -1.2445396743714809e-02</internalNodes>
      <leafValues>
        6.6704738140106201e-01 -5.0884616374969482e-01</leafValues></_>
    <_>
      <internalNodes>
        0 -1 28594 -2.0421594381332397e-01</internalNodes>
      <leafValues>
        4.8752558231353760e-01 -6.0443568229675293e-01</leafValues></_>
    <_>
      <internalNodes>
        0 -1 120658 7.9989638179540634e-03</internalNodes>
      <leafValues>
        -4.1527605056762695e-01 5.6156104803085327e-01</leafValues></_>
    <_>
      <internalNodes>
        0 -1 560 1.9919003825634718e-03</internalNodes>
      <leafValues>
        -5.8889269828796387e-01 3.7786820530891418e-01</leafValues></_>
    <_>
      <internalNodes>
        0 -1 124656 -1.1091890931129456e-01</internalNodes>
      <leafValues>
        -9.0681588649749756e-01 2.0359970629215240e-01</leafValues></_>
    <_>
      <internalNodes>
        0 -1 87197 -9.1300881467759609e-04</internalNodes>
      <leafValues>
        4.1798892617225647e-01 -4.4184237718582153e-01</leafValues></_>
    <_>
      <internalNodes>
        0 -1 6274 -5.1890116184949875e-02</internalNodes>
      <leafValues>
        4.0527847409248352e-01 -4.6811625361442566e-01</leafValues></_></weakClassifiers></stage3>
</opencv_storage>
