<?xml version="1.0"?>
<opencv_storage>
<stage14>
  <maxWeakCount>14</maxWeakCount>
  <stageThreshold>-1.5229703187942505e+00</stageThreshold>
  <weakClassifiers>
    <_>
      <internalNodes>
        0 -1 162182 8.4557791706174612e-04</internalNodes>
      <leafValues>
        -8.2816231250762939e-01 2.1852152049541473e-01</leafValues></_>
    <_>
      <internalNodes>
        0 -1 147400 -7.8716402640566230e-05</internalNodes>
      <leafValues>
        3.8144752383232117e-01 -4.5035621523857117e-01</leafValues></_>
    <_>
      <internalNodes>
        0 -1 8436 -2.4920855648815632e-03</internalNodes>
      <leafValues>
        2.0600603520870209e-01 -7.2530388832092285e-01</leafValues></_>
    <_>
      <internalNodes>
        0 -1 162224 2.1506701596081257e-03</internalNodes>
      <leafValues>
        1.7997278273105621e-01 -8.6641615629196167e-01</leafValues></_>
    <_>
      <internalNodes>
        0 -1 75863 1.3382606208324432e-02</internalNodes>
      <leafValues>
        -3.3825123310089111e-01 4.0757679939270020e-01</leafValues></_>
    <_>
      <internalNodes>
        0 -1 132353 -2.0682665053755045e-03</internalNodes>
      <leafValues>
        -8.1603169441223145e-01 1.6008767485618591e-01</leafValues></_>
    <_>
      <internalNodes>
        0 -1 553 -2.4067750573158264e-01</internalNodes>
      <leafValues>
        3.2488450407981873e-01 -4.6516376733779907e-01</leafValues></_>
    <_>
      <internalNodes>
        0 -1 126781 4.9966163933277130e-02</internalNodes>
      <leafValues>
        -2.7288895845413208e-01 6.2136316299438477e-01</leafValues></_>
    <_>
      <internalNodes>
        0 -1 2199 2.1539018489420414e-03</internalNodes>
      <leafValues>
        -2.3720602691173553e-01 5.2495878934860229e-01</leafValues></_>
    <_>
      <internalNodes>
        0 -1 71631 1.3022129423916340e-03</internalNodes>
      <leafValues>
        -3.7566858530044556e-01 3.9894419908523560e-01</leafValues></_>
    <_>
      <internalNodes>
        0 -1 151899 -9.5944356871768832e-04</internalNodes>
      <leafValues>
        -6.1638128757476807e-01 2.4549143016338348e-01</leafValues></_>
    <_>
      <internalNodes>
        0 -1 129762 -1.6920443624258041e-02</internalNodes>
      <leafValues>
        1.8234491348266602e-01 -7.7752274274826050e-01</leafValues></_>
    <_>
      <internalNodes>
        0 -1 161614 -1.3307147892192006e-03</internalNodes>
      <leafValues>
        3.9467373490333557e-01 -3.7008932232856750e-01</leafValues></_>
    <_>
      <internalNodes>
        0 -1 162074 -2.3985443112906069e-04</internalNodes>
      <leafValues>
        -7.3621392250061035e-01 2.0756205916404724e-01</leafValues></_></weakClassifiers></stage14>
</opencv_storage>
