<?xml version="1.0"?>
<opencv_storage>
<stage13>
  <maxWeakCount>14</maxWeakCount>
  <stageThreshold>-1.5108289718627930e+00</stageThreshold>
  <weakClassifiers>
    <_>
      <internalNodes>
        0 -1 157907 1.3613584451377392e-03</internalNodes>
      <leafValues>
        -8.0327868461608887e-01 2.7022376656532288e-01</leafValues></_>
    <_>
      <internalNodes>
        0 -1 52251 -3.5101650282740593e-03</internalNodes>
      <leafValues>
        5.4810661077499390e-01 -3.5572591423988342e-01</leafValues></_>
    <_>
      <internalNodes>
        0 -1 88239 4.6391261275857687e-04</internalNodes>
      <leafValues>
        -3.5171401500701904e-01 4.4500342011451721e-01</leafValues></_>
    <_>
      <internalNodes>
        0 -1 50336 -2.1601790189743042e-01</internalNodes>
      <leafValues>
        2.8951427340507507e-01 -6.6188883781433105e-01</leafValues></_>
    <_>
      <internalNodes>
        0 -1 162193 -1.3118667993694544e-04</internalNodes>
      <leafValues>
        -7.7153599262237549e-01 1.0036307573318481e-01</leafValues></_>
    <_>
      <internalNodes>
        0 -1 150528 -5.3674657829105854e-04</internalNodes>
      <leafValues>
        5.1235175132751465e-01 -2.9569706320762634e-01</leafValues></_>
    <_>
      <internalNodes>
        0 -1 89457 -1.3886555097997189e-03</internalNodes>
      <leafValues>
        2.3115816712379456e-01 -6.3584190607070923e-01</leafValues></_>
    <_>
      <internalNodes>
        0 -1 142158 -2.5131268193945289e-04</internalNodes>
      <leafValues>
        4.3871450424194336e-01 -3.3798331022262573e-01</leafValues></_>
    <_>
      <internalNodes>
        0 -1 6002 -7.2247393429279327e-02</internalNodes>
      <leafValues>
        3.7781885266304016e-01 -3.3248889446258545e-01</leafValues></_>
    <_>
      <internalNodes>
        0 -1 70083 5.7427957653999329e-04</internalNodes>
      <leafValues>
        -3.5130381584167480e-01 4.0363940596580505e-01</leafValues></_>
    <_>
      <internalNodes>
        0 -1 80476 8.2880165427923203e-04</internalNodes>
      <leafValues>
        2.0574079453945160e-01 -7.9040014743804932e-01</leafValues></_>
    <_>
      <internalNodes>
        0 -1 151400 1.9615148194134235e-03</internalNodes>
      <leafValues>
        -4.7532504796981812e-01 2.4784241616725922e-01</leafValues></_>
    <_>
      <internalNodes>
        0 -1 162179 3.1479843892157078e-03</internalNodes>
      <leafValues>
        1.8297049403190613e-01 -7.5625002384185791e-01</leafValues></_>
    <_>
      <internalNodes>
        0 -1 102449 1.5316079370677471e-03</internalNodes>
      <leafValues>
        -3.4806144237518311e-01 3.3937576413154602e-01</leafValues></_></weakClassifiers></stage13>
</opencv_storage>
